<?xml version="1.0"?>
<opencv_storage>
<cascade>
  <stageType>BOOST</stageType>
  <featureType>HAAR</featureType>
  <height>32</height>
  <width>32</width>
  <stageParams>
    <boostType>GAB</boostType>
    <minHitRate>9.9500000476837158e-01</minHitRate>
    <maxFalseAlarm>5.0000000000000000e-01</maxFalseAlarm>
    <weightTrimRate>9.4999998807907104e-01</weightTrimRate>
    <maxDepth>1</maxDepth>
    <maxWeakCount>100</maxWeakCount></stageParams>
  <featureParams>
    <maxCatCount>0</maxCatCount>
    <featSize>1</featSize>
    <mode>BASIC</mode></featureParams>
  <stageNum>6</stageNum>
  <stages>
    <!-- stage 0 -->
    <_>
      <maxWeakCount>3</maxWeakCount>
      <stageThreshold>-1.6196843385696411e+00</stageThreshold>
      <weakClassifiers>
        <_>
          <internalNodes>
            0 -1 9 -2.8252336196601391e-03</internalNodes>
          <leafValues>
            1.6666667163372040e-01 -9.8795181512832642e-01</leafValues></_>
        <_>
          <internalNodes>
            0 -1 11 2.0991335622966290e-03</internalNodes>
          <leafValues>
            -9.5004600286483765e-01 2.4453708529472351e-01</leafValues></_>
        <_>
          <internalNodes>
            0 -1 6 -2.1202191710472107e-02</internalNodes>
          <leafValues>
            5.1104193925857544e-01 -8.7626963853836060e-01</leafValues></_></weakClassifiers></_>
    <!-- stage 1 -->
    <_>
      <maxWeakCount>3</maxWeakCount>
      <stageThreshold>-1.6150854825973511e+00</stageThreshold>
      <weakClassifiers>
        <_>
          <internalNodes>
            0 -1 10 -2.7234412264078856e-03</internalNodes>
          <leafValues>
            1.6666667163372040e-01 -9.7420632839202881e-01</leafValues></_>
        <_>
          <internalNodes>
            0 -1 3 -1.2448281049728394e-03</internalNodes>
          <leafValues>
            4.8974007368087769e-01 -9.0202355384826660e-01</leafValues></_>
        <_>
          <internalNodes>
            0 -1 14 1.4230066444724798e-03</internalNodes>
          <leafValues>
            -8.7972867488861084e-01 5.8395278453826904e-01</leafValues></_></weakClassifiers></_>
    <!-- stage 2 -->
    <_>
      <maxWeakCount>3</maxWeakCount>
      <stageThreshold>-1.7791881561279297e+00</stageThreshold>
      <weakClassifiers>
        <_>
          <internalNodes>
            0 -1 16 5.7434653863310814e-03</internalNodes>
          <leafValues>
            -9.8170733451843262e-01 -3.8888889551162720e-01</leafValues></_>
        <_>
          <internalNodes>
            0 -1 17 3.9379321970045567e-03</internalNodes>
          <leafValues>
            -9.0449291467666626e-01 1.3666200637817383e-01</leafValues></_>
        <_>
          <internalNodes>
            0 -1 8 7.0128470659255981e-02</internalNodes>
          <leafValues>
            -9.3414288759231567e-01 3.2689234614372253e-01</leafValues></_></weakClassifiers></_>
    <!-- stage 3 -->
    <_>
      <maxWeakCount>3</maxWeakCount>
      <stageThreshold>-1.7609759569168091e+00</stageThreshold>
      <weakClassifiers>
        <_>
          <internalNodes>
            0 -1 5 9.4693144783377647e-03</internalNodes>
          <leafValues>
            -9.6656835079193115e-01 1.</leafValues></_>
        <_>
          <internalNodes>
            0 -1 15 3.9645247161388397e-03</internalNodes>
          <leafValues>
            -9.4147086143493652e-01 3.9601989090442657e-02</leafValues></_>
        <_>
          <internalNodes>
            0 -1 12 -1.6778838471509516e-04</internalNodes>
          <leafValues>
            3.1366485357284546e-01 -8.3400958776473999e-01</leafValues></_></weakClassifiers></_>
    <!-- stage 4 -->
    <_>
      <maxWeakCount>3</maxWeakCount>
      <stageThreshold>-1.4846360683441162e+00</stageThreshold>
      <weakClassifiers>
        <_>
          <internalNodes>
            0 -1 4 -3.1749296467751265e-03</internalNodes>
          <leafValues>
            3.3333334326744080e-01 -9.6844184398651123e-01</leafValues></_>
        <_>
          <internalNodes>
            0 -1 1 4.4729834794998169e-01</internalNodes>
          <leafValues>
            -8.6724746227264404e-01 3.9620202779769897e-01</leafValues></_>
        <_>
          <internalNodes>
            0 -1 13 1.1397894471883774e-02</internalNodes>
          <leafValues>
            -8.7997871637344360e-01 3.5105317831039429e-01</leafValues></_></weakClassifiers></_>
    <!-- stage 5 -->
    <_>
      <maxWeakCount>3</maxWeakCount>
      <stageThreshold>-1.9658371210098267e+00</stageThreshold>
      <weakClassifiers>
        <_>
          <internalNodes>
            0 -1 2 5.9182893484830856e-02</internalNodes>
          <leafValues>
            -9.6850395202636719e-01 1.</leafValues></_>
        <_>
          <internalNodes>
            0 -1 0 -2.2524180822074413e-03</internalNodes>
          <leafValues>
            -5.5286053568124771e-02 -9.4062203168869019e-01</leafValues></_>
        <_>
          <internalNodes>
            0 -1 7 -1.3687164755538106e-04</internalNodes>
          <leafValues>
            1.6890247166156769e-01 -9.4204717874526978e-01</leafValues></_></weakClassifiers></_></stages>
  <features>
    <_>
      <rects>
        <_>
          0 12 2 12 -1.</_>
        <_>
          0 12 1 6 2.</_>
        <_>
          1 18 1 6 2.</_></rects>
      <tilted>0</tilted></_>
    <_>
      <rects>
        <_>
          1 0 28 20 -1.</_>
        <_>
          1 10 28 10 2.</_></rects>
      <tilted>0</tilted></_>
    <_>
      <rects>
        <_>
          1 5 12 7 -1.</_>
        <_>
          7 5 6 7 2.</_></rects>
      <tilted>0</tilted></_>
    <_>
      <rects>
        <_>
          1 21 3 2 -1.</_>
        <_>
          2 21 1 2 3.</_></rects>
      <tilted>0</tilted></_>
    <_>
      <rects>
        <_>
          3 24 2 4 -1.</_>
        <_>
          3 24 1 2 2.</_>
        <_>
          4 26 1 2 2.</_></rects>
      <tilted>0</tilted></_>
    <_>
      <rects>
        <_>
          3 27 8 1 -1.</_>
        <_>
          7 27 4 1 2.</_></rects>
      <tilted>0</tilted></_>
    <_>
      <rects>
        <_>
          7 26 13 6 -1.</_>
        <_>
          7 29 13 3 2.</_></rects>
      <tilted>0</tilted></_>
    <_>
      <rects>
        <_>
          9 21 1 2 -1.</_>
        <_>
          9 22 1 1 2.</_></rects>
      <tilted>0</tilted></_>
    <_>
      <rects>
        <_>
          10 10 21 15 -1.</_>
        <_>
          10 15 21 5 3.</_></rects>
      <tilted>0</tilted></_>
    <_>
      <rects>
        <_>
          12 29 6 2 -1.</_>
        <_>
          12 30 6 1 2.</_></rects>
      <tilted>0</tilted></_>
    <_>
      <rects>
        <_>
          14 22 2 3 -1.</_>
        <_>
          14 23 2 1 3.</_></rects>
      <tilted>0</tilted></_>
    <_>
      <rects>
        <_>
          15 8 5 3 -1.</_>
        <_>
          15 9 5 1 3.</_></rects>
      <tilted>0</tilted></_>
    <_>
      <rects>
        <_>
          16 16 2 1 -1.</_>
        <_>
          17 16 1 1 2.</_></rects>
      <tilted>0</tilted></_>
    <_>
      <rects>
        <_>
          17 26 12 6 -1.</_>
        <_>
          17 26 6 3 2.</_>
        <_>
          23 29 6 3 2.</_></rects>
      <tilted>0</tilted></_>
    <_>
      <rects>
        <_>
          18 10 5 3 -1.</_>
        <_>
          18 11 5 1 3.</_></rects>
      <tilted>0</tilted></_>
    <_>
      <rects>
        <_>
          19 11 4 8 -1.</_>
        <_>
          19 11 2 4 2.</_>
        <_>
          21 15 2 4 2.</_></rects>
      <tilted>0</tilted></_>
    <_>
      <rects>
        <_>
          22 10 1 8 -1.</_>
        <_>
          22 14 1 4 2.</_></rects>
      <tilted>0</tilted></_>
    <_>
      <rects>
        <_>
          30 13 2 12 -1.</_>
        <_>
          30 13 1 6 2.</_>
        <_>
          31 19 1 6 2.</_></rects>
      <tilted>0</tilted></_></features></cascade>
</opencv_storage>
